solver_type L1R_LR
nr_class 2
label 0 1
nr_feature 2048
bias -1
w
0 
0 
0 
0 
0 
0 
0 
-0.28424469817499926 
0 
0.1803392160755618 
0 
0.3768871715848599 
0 
0.27213407384141031 
0 
0 
0 
0 
0 
0 
0 
0 
0.073743289370743259 
0.12699237294604032 
0 
0 
0.48379555831357018 
-0.32823879475000373 
0 
0 
0 
0 
0 
0 
0 
0 
0 
0 
0 
0 
0 
0.66049313570362012 
0 
0.29868357239612864 
0 
-0.21104686229733677 
0 
0 
0 
0.26789529363972664 
0 
0.012327893296362949 
0 
-1.3543534836970881 
-0.077244863410198761 
-0.66299550941411334 
0 
0 
0 
0 
0 
0 
0 
0 
0 
0 
0 
0 
0 
0 
0 
0 
0 
0.22695747200698216 
0 
0 
0 
0 
0 
0 
0 
0 
0 
0.75721944082503756 
0 
0 
0 
-0.20434235400481496 
0 
0 
0 
0 
0 
0.010612113698339986 
0 
0 
0 
0 
0 
0 
0 
0 
0 
0 
0 
0 
0 
0 
0 
0 
0 
0 
0 
0.41182840148752714 
0 
0 
1.3011916484395336 
0 
0 
0 
-0.1153704455943695 
0 
0 
0 
0 
-0.050173947102954454 
0 
0 
0 
0 
0 
0 
0 
0.023147378720984768 
0 
0 
0 
0 
0 
0 
0 
-0.21048313099981092 
0 
0 
0 
0 
0 
0 
-0.034599761124140975 
-0.0082282838342395363 
0.1696782695039456 
0 
0 
0 
0 
0 
0.12048333473474129 
0.03541965026633917 
0 
0 
0.4931269294167005 
0 
0 
-0.21159291566496108 
0 
0 
0 
0 
0 
0 
0 
0 
0 
0.14198093603032624 
0 
0.034454790017370542 
0 
0.22373152404087202 
0 
0 
0 
-0.019631085614902795 
0 
0 
0 
-0.096563070555003447 
0 
0 
0 
0.290681420442233 
0 
0 
-0.13096116224222978 
0 
-0.26973143987497999 
0 
0 
0 
0 
0 
0 
-0.077379412840289929 
0 
0 
0 
0 
0 
0.026082477672742521 
0 
0 
0 
0 
0 
0 
0.51720336018366897 
0.037224607190728135 
0.11424368539581289 
0 
-0.046063467622106849 
0 
-0.18038550697026237 
-0.10439978361073363 
0 
0 
0.22196567889993574 
-0.31180514563258938 
0 
0 
-0.29525667293013547 
-0.39252468198711493 
0 
0 
0 
0 
0.18501281530670338 
0 
0 
0.010121173309924347 
0 
-0.34263980618557455 
0 
0 
0 
0 
0 
0.12270084376643464 
0.34458812192870147 
0 
0 
0 
0 
0 
0 
0 
0.090254919469442058 
0 
0 
0 
-0.26672548360327064 
0 
-0.019901454959408565 
0 
0 
0 
-0.74857457466845545 
0 
0 
0 
0 
0 
0 
0 
0.39309598087683228 
-0.14379500722564253 
-0.03427352966877327 
0 
0 
0 
0 
-0.38897886210492882 
0 
0 
0 
0 
0 
0 
0 
0 
0 
0 
0 
0 
0 
0 
0 
0 
-0.13999650575004471 
0 
0 
0 
-0.29368003613572125 
0 
0 
-0.66457984804735426 
0.011472873904992941 
0 
0 
-0.38197051287520983 
0 
0 
0 
0 
0 
0 
0 
0 
0.17425245023515804 
0 
0 
0 
0 
0.19007928026853477 
0 
0 
0 
0 
0 
0 
0 
0 
0 
0 
0 
-0.40536752638179446 
0 
-0.22427215011344001 
0 
0 
0 
0 
0 
0 
0 
0 
0 
0 
0 
0 
-0.047725268062912822 
0 
0.14547711004709252 
0.28575640225427579 
0.033263259372943284 
0 
0 
0.030141257091649346 
0.048188969688958486 
0 
0.023993916542419128 
-0.027081081830156842 
0 
0 
0 
0 
0 
0 
0 
0 
0 
0 
0 
0 
0.18646647158019428 
0 
0 
0 
0 
0 
0 
0 
0 
0 
0 
-0.16237534202930587 
0 
0 
0 
0 
0 
0 
0 
0 
0 
0.091794781908766054 
0 
0 
0 
0 
0.01032381771283427 
0 
0 
0 
-0.44664139496598604 
0 
0 
0 
0.30697193724174965 
0 
0 
0 
0 
0 
0 
0 
0.53543215833588698 
0 
0 
0 
0 
0 
0.32653921561468008 
0 
0 
0 
0 
0 
0 
0 
0 
0 
0.026815641819582545 
0 
0 
0 
0 
0.15149929073814092 
0.14260614506446226 
0 
0 
0 
-0.25974026868827654 
-0.12310548431020742 
0 
0.40331162274613147 
0 
0 
0 
0 
-0.39612599320986369 
0 
0 
0 
0 
0 
-0.22667072113251424 
0 
0 
0 
0 
0 
-0.18789229647734221 
-0.10920073095897778 
0.35736037958830302 
-0.012178105053975347 
0 
0 
0.022237245295986738 
0 
0 
0 
0.12989773087347714 
0.14812113263403962 
0.12712217684869509 
0 
0 
0 
0 
0 
-0.015705217644338354 
0.21247331926738258 
-0.20843362167025883 
0 
0 
0 
0 
0 
-0.17971793285688839 
0 
0.95302938159877182 
0 
0 
0.041129195011327162 
0 
0 
0 
0 
0.14508940645050339 
0 
0 
0 
-0.067095633922184789 
0 
0 
0 
-0.74763142559459617 
0 
0.21196983578708756 
0 
0 
0 
0.025938736479754393 
0 
0 
0 
0 
-0.0070971420944376459 
0 
-0.42786975776234043 
-0.48364527506690863 
0.0018110363509631104 
0 
0 
0 
0.13561043595008654 
0 
0 
-0.43690028763452315 
0 
-0.22114240640312782 
0 
0.088498629976111035 
0 
0 
0 
0 
0 
0 
0 
0 
0 
0 
0 
0 
0 
-0.026876438962505543 
0 
0 
0 
0 
0 
0 
0 
0 
0 
0 
0 
0.082291282121258191 
0 
0 
0.38745540779472404 
0 
0.04122944333943844 
0 
0 
0 
-0.16109324037361178 
0 
0 
0 
0.28867429116228827 
0 
0 
0 
0 
0 
0 
0 
0 
0 
-0.47717374143057095 
0 
0 
0 
0 
0 
0 
0 
0 
0 
0 
0 
0 
0 
0 
0 
0 
0 
0 
0 
0 
0 
-0.026907475604232282 
0.74032514941082173 
0 
0 
0 
0 
0 
1.5473541088999072 
0 
0 
0 
0 
-0.35322997318205412 
0 
0 
0 
0 
0.64871605258266074 
0 
0 
0 
0 
0 
0 
0 
0 
-0.33383693688049565 
0 
0 
0 
0.0588571270342301 
0 
0.070526546065327711 
0.066848803907530646 
0 
0 
0 
0 
0 
0 
0 
0 
0.70738508465818295 
0 
0 
0 
0 
0 
0 
0 
-0.19966696827306946 
0 
0 
-0.33376030040089638 
0 
0 
-0.32947792181225438 
0 
0 
0 
0 
0.16949174863985284 
0 
0 
-0.017075810192831369 
0 
0 
0 
0 
0.052017355261859348 
0.57727477301731778 
0.045167718410713639 
0 
0 
0 
0 
0 
0 
0 
0 
0.86297831240220302 
0 
0 
0.029990367768959431 
-0.13074668039877801 
0 
-0.11762718160238381 
0.066397838618081823 
0 
0 
0 
0.25728386428231181 
0 
0 
0 
0 
0 
0 
0 
0.011565643675577898 
0 
0 
0 
0 
0 
0 
0 
0 
0 
0 
0 
-0.024858023350075618 
0 
0 
0 
0 
0 
0 
0.14750141089868324 
0 
0 
-0.075276109657476525 
0 
-0.19428974200066146 
0 
0 
0 
0 
-0.014775550805123105 
-0.012882067525905443 
0 
0 
0 
0 
0 
0 
0.39404571986663295 
0 
0 
0.32261765967778866 
0 
0 
0 
0 
0 
0.045170254371470056 
0 
0 
0 
0 
0 
0 
0 
0 
0 
0.047694069997110983 
0 
0 
0.1205895909605235 
0.16978603955294658 
0 
0 
0 
0.11150666763519854 
0 
0 
0 
0 
0 
0 
0 
-0.067919902513866356 
0 
0 
0 
0 
0 
0 
0.091929024769448309 
0 
0 
0 
0 
0 
0 
0 
0 
0 
-0.078220900155990591 
0 
0.91534016653422701 
0.28222062153675986 
0 
0 
0 
0 
0.072172676162051017 
0 
0 
0 
0 
0 
0 
-0.15607735945906082 
0 
0 
0 
0.55240204902405021 
0 
0 
0 
0 
0 
0 
-0.18737660579447349 
0 
0 
0 
0 
0 
0 
0.78546839412287617 
0 
0 
0 
0 
0.54816644193856956 
0.55300748301404834 
0.2997728907125603 
0 
0 
0 
0 
0 
0 
-0.70319755219406654 
0.37010168660570508 
0 
0 
0 
0 
0.21882553150427136 
0 
0 
0 
0 
0 
0 
0.41760237277126422 
0 
0.015577820873172357 
0 
0 
-0.12432649717632011 
0 
0.16585414799314566 
0 
0 
0 
0 
0 
0 
0 
0.057782642941127678 
0 
0 
0 
0 
-0.13016422313133463 
-0.20638877728824093 
0 
0 
0 
0 
0 
0 
0 
0 
0 
0.45693867069735439 
0 
0.079995079246319128 
0.27895813436789491 
0 
0 
0 
0 
0 
0 
0 
0 
0.38604800351068291 
0.10108918978664293 
0 
0 
0.51307772806798468 
0 
0 
0.15784152014131281 
0 
0 
-0.035326431454285392 
0 
0 
0 
0 
0 
0.069141299374436513 
0.062702413548025415 
-0.23789703496874609 
0 
0 
-0.59335851291476671 
0 
0 
0 
0 
0 
0 
0.037204954459428029 
0 
-0.031005070172731141 
0 
0.1916400709204589 
0 
0 
0 
-0.048251778134821482 
0.13209070138601256 
0 
0 
0 
0.013449659567532779 
0 
0 
0 
0 
0 
0 
0 
0 
0 
0 
0 
0 
0 
0 
0 
0 
0 
0 
0.32768652156309291 
0 
0 
0 
-0.25072063679191003 
0.16943141387592719 
0 
0.31401928557176223 
0 
0 
-0.091072590718993304 
0 
-0.65696920207925091 
0.14372663033926164 
-0.0076689470090032102 
0 
0 
0 
0 
0 
0 
0 
0 
0 
0 
0 
0 
0 
0 
0 
-0.24734592873955957 
0.16460628870588129 
0.85055304157135536 
0 
0 
0 
-0.0027460272640745949 
0 
0 
-0.40233174868421201 
0 
0 
0 
0 
0.018165657313727792 
0 
0 
0 
0.4147517275623443 
-0.49973415858886688 
0 
0 
0 
-0.099463902679104974 
0 
0.22553695019350137 
0.10926224771523586 
0 
0 
0 
0 
0 
0 
0 
0.64098123767747217 
0 
0 
0 
0 
0 
0 
0 
0.045801572076420716 
0 
0 
0 
0 
-0.054136054761548674 
0 
0 
0.085446537608656503 
0 
0.41061411078373394 
0 
0 
0 
0 
-0.16018641908246098 
0 
0 
0 
0 
0 
0 
0 
0 
-1.3738440584132869 
0 
0.10373169105853598 
0 
0 
0 
0 
0 
0 
0.17593154224358351 
0 
0 
-0.17178296762107476 
0 
0.44653904343154327 
0 
0 
0 
0 
0 
0 
-0.49491764108870789 
0.45513269500604719 
-0.35524489729577968 
0 
0 
0 
0 
0 
0 
0 
0 
0 
0 
0 
0.14059641302284298 
0 
0 
0 
0 
0 
0 
0 
0 
0 
0 
0 
0 
0 
0.077600542558229776 
0 
0 
0 
0 
0 
0.068207438125393344 
0 
0 
0 
0 
0 
-0.028754113411788594 
0 
0 
0 
0 
0 
0 
0 
0 
0 
0 
0 
0 
0 
0.20092392994273622 
-0.57188481252921741 
0 
0 
0 
0 
0 
0 
-0.27561069196559673 
0 
0 
0 
0 
0 
0.095587190755450496 
0 
0 
0 
0 
0 
-0.24870757107749011 
0 
0 
0 
0 
0 
0 
0 
0 
0.24664502787345488 
0 
0 
0 
0 
0 
-0.26886977078789975 
0 
-0.11794909244029567 
0 
0 
0 
-0.012641103107780591 
0 
0 
0 
0 
0 
0 
0 
0 
0 
0 
-0.10864840633199724 
0 
0 
0 
0.17726608164830021 
0 
0 
0 
0 
-0.026829084280150878 
0 
-0.2798891451658902 
0 
0 
0 
0 
0 
0 
0 
0 
-0.14045700793503804 
0 
0 
-0.53195964038647203 
0 
0 
0 
0 
0 
0 
0 
0.1440595075111695 
0 
0 
0 
0 
0.30005701367111737 
-0.13602178357375849 
0 
-0.23691285303066126 
0 
0 
-0.71088312835389866 
0 
0 
0 
0 
0 
0.28638645095089071 
0 
0 
-0.11534063590054885 
0 
0 
0 
-0.61026324146734723 
-0.19421170174711863 
0 
0 
0 
0 
0 
0 
0 
0.02365198606547941 
0 
0 
0 
-0.13921608692537421 
0 
0 
0 
0 
0 
0 
0 
0 
0 
0 
0 
0 
0 
0 
0 
0 
0 
0 
0 
0 
0 
0.019427168087217977 
-0.10508095353640003 
0 
0.27790624465518632 
0 
0 
0 
0 
0 
0.65751072556787293 
0 
0.083705650374829327 
0.060479147685028656 
0 
-0.3113854485839268 
-0.01660612923741412 
0.68540929138710327 
0 
0 
0 
-0.35376270914270286 
0.18035465810215884 
0 
0 
0 
0 
0 
0 
0 
0 
0 
0 
0 
0 
0 
0.32457647478352925 
0 
-0.13733768919511624 
0 
0 
0 
0 
0.80417238436753602 
0 
0 
0 
-0.099240432508472101 
0 
0 
0.12694146662175057 
0 
0 
-0.03799560809222878 
0 
0 
0 
0 
0 
0 
0 
0 
-0.014668756200101763 
0 
0 
0 
0 
0 
0 
0.17250386014605346 
0 
0.10812817029921058 
0 
0 
0 
0 
-0.086940034309325093 
0 
0.44362917895370096 
0 
0 
0.048771081602760002 
0 
0 
0 
0 
0 
0.064595977025179552 
0 
0 
0 
0 
-0.30874243425580666 
0 
0 
-0.1931223741821633 
0 
0 
0 
0 
0 
0 
0 
0.40122384512928544 
0.27786380505305919 
0 
0 
0 
0 
-0.25482114433711878 
0 
0 
0.079950959787613879 
0 
0 
0 
0 
0.027992531561436336 
0 
0 
0 
0.11566885313218027 
0 
0 
0 
0 
0 
0 
0 
0 
0.16203353118586342 
0 
0 
0 
0 
0 
0 
0 
0 
0 
0 
0 
0 
0 
0 
0 
0 
0 
0 
0 
0 
-0.2704946574625085 
0 
0 
-0.46435021900155338 
0.044349814795998171 
0 
0.11681885500074077 
0 
0.24619958726034993 
0 
0.72222271344448452 
0 
0 
0 
0 
0 
0 
0 
0 
0 
0 
0 
0 
0 
0 
0 
-0.41527351467203966 
0 
0 
0 
0 
0 
0 
0 
0 
0 
0 
0 
0 
0 
0 
0 
0 
0.055587975766152903 
0 
0 
0 
0.12084994868422003 
-0.1546264674595467 
0 
0 
0 
0 
0 
0 
0 
0 
-0.027996132754425727 
-0.24131033864901813 
0 
0 
-0.54107349315803055 
0 
0 
-0.56444519649594671 
0 
0 
0 
0.16363123839208524 
0 
0.0082634208446880925 
0 
0.60099314572199325 
0 
0.56314307575182276 
0 
0 
0 
0.29911023933480108 
0 
0 
0 
0 
0 
0 
-0.061060523730076352 
0 
0.0067980960686571737 
0.1638898570114356 
1.0152321191226363 
0 
0 
0 
0 
0 
0 
0 
0.26330603512490225 
0 
0 
-0.13190457226501509 
0 
0 
0 
0 
0 
0 
-0.5584627278655544 
0 
-0.4723069438813457 
0 
0 
0 
0 
0 
-0.45566300499187318 
0 
0 
0 
0 
0 
0.083878617692370927 
0 
0 
0 
0 
0 
-0.0069619217252134824 
0.39496439360814034 
-0.21621991626553419 
-0.82716773884765948 
0 
0 
0.090832203090658356 
0.20152971524299135 
0 
0 
0 
0 
0.059767774805817173 
0 
0 
0.32182770377549219 
0 
0 
0 
0 
0.017538536857222412 
0 
0 
0 
0 
0 
0.16099821903481573 
0 
-0.019961480053105756 
0 
0 
0 
-0.24199358622530043 
0 
0.4028685710797858 
0 
0 
0 
0 
0 
0 
0 
0 
-0.10943115025558522 
0 
0.0040754218894474836 
0 
0 
0 
-0.1841299427578742 
0 
0 
0 
0 
0 
-0.21318230082644066 
0 
0 
0.059377264686879698 
0 
0 
0 
0 
0.72248370085545244 
-0.028862074241230308 
0 
0 
0 
0 
0 
0 
-0.70592533941288305 
0 
0 
0 
0 
0 
0 
0 
-0.5516292017802874 
0 
0 
0 
-0.25592925003147726 
0 
0 
0 
0 
-0.38592353585553291 
0.0081819660182629594 
0 
0 
0.13491368725909642 
0 
-0.25206427369745071 
0 
0 
0.8524807025579334 
0 
-0.0095053933950033781 
0 
0 
0 
0 
-0.072449575122599169 
0 
0.13525785004037535 
0 
0 
0 
0 
0 
-0.093667157125622291 
0 
0 
0 
0 
0 
0 
0 
0 
0.098197621591856021 
0 
0.12084450004583261 
0 
0 
0 
0 
0 
0 
0.17899678052521217 
0 
0 
0 
0 
0 
0 
0 
0.16138243476852532 
0 
0 
0.35392549229697778 
-0.0013110476918382491 
-0.35271925396026449 
0 
0.066611454668474554 
0.067858113489362826 
0.37171909939212056 
0 
0.0069347098916437023 
0 
0.073231155170315226 
0 
0 
0 
-0.060321609644754928 
0 
0.73672981789170056 
0 
0 
0 
0 
0 
0 
0 
0 
0 
0 
0 
0 
0 
0 
0 
0 
0 
0.29959770684679554 
0 
0 
0 
0 
0 
-0.1192906269917369 
0 
0 
0 
0 
0 
0.24041517637202461 
0 
0 
0.82526908153229772 
0.68490276406167028 
-0.095930956842036036 
0 
-0.0063530691200903711 
0 
0 
0.1496666665224485 
0.38406603164312614 
-0.3842674022220493 
0 
0 
0 
0 
0 
0 
0 
0 
0 
0 
0 
0 
0 
0 
0 
0 
0 
-0.083323675508552991 
0 
0 
0 
-0.65036809651953786 
-0.36496095346603502 
0 
0.18523973448021541 
0 
0 
0 
0 
0 
0 
0 
0 
0 
0 
0 
0 
0 
0 
0 
0 
0 
0 
0 
0 
0 
0 
0 
0 
0 
0 
0 
0.0018544973147295381 
0 
-0.4754274534901014 
0 
0 
0 
0 
0 
0 
0 
0 
0 
0 
0 
0 
0 
0 
0 
0.49515713972844233 
-0.15854718513989846 
0 
0 
0 
0.030474042104429805 
0 
0 
0 
0 
0 
0 
0 
0.044261019541927571 
-0.56229757551194059 
0 
0 
0 
0.019810276998897355 
0 
0 
0 
0 
-0.23527287435285074 
0 
0 
0 
0 
0 
0.046147117755740055 
0.036791889311781248 
0 
0 
0 
0 
0 
0 
0 
0.075437998809109702 
0 
0.31620759406182142 
0 
0.084950928286169694 
0 
0 
0 
0 
0 
0 
0.28215199125931972 
0.20138265340130668 
-0.033543265010978179 
0 
0 
0.12801900495795321 
0 
0 
0 
0 
0 
0 
-0.65570971668255984 
0 
0 
0 
0 
0 
-0.34197649389355622 
0 
0 
0 
0 
0 
0 
0 
-0.37785135094138572 
0 
0 
0.15984965459025655 
0 
0 
0 
-0.19075820339615446 
0 
0 
0 
0 
0 
0 
-0.13728998573446455 
0 
0 
0 
0 
0 
-0.073477493051561871 
0 
0 
0 
0 
0.061676224639034327 
0 
0 
0 
-0.08879331395161047 
0 
-0.22604654365888005 
0 
0 
0.32582153336919217 
0 
0 
0 
0 
0 
0 
0 
0 
0 
0 
0 
0 
0 
0 
0 
0 
0 
0 
0 
0 
0 
-0.17038510997138878 
0.085707876576965172 
0 
0 
0.0088953881118805089 
0 
0 
0 
0 
-0.075511846669938709 
0 
0 
0 
0 
0.51354410045490972 
0.16114145165230717 
0 
0 
0 
0 
0 
0 
0 
0 
0 
0 
0 
0 
0 
0 
0 
0 
0.56000456374006025 
0 
0 
0 
0 
0 
0 
0 
0 
0.31294464396080468 
0 
0 
0 
0 
0.27518205013170838 
0 
0 
0 
0 
0 
0 
0 
0 
0 
0 
0 
0 
0 
0 
0 
0 
0 
0 
0 
0 
-0.53966568535295989 
0 
0 
0 
0 
0 
0 
0 
0 
0 
0 
0 
0 
0 
0 
0 
0 
0 
0 
0 
0 
0 
-0.37690569553456688 
0 
0 
0 
0 
0.127511907438108 
0 
0 
0 
0 
0.015508730740067811 
0 
-0.88601392239770116 
0 
-0.22824059181977951 
0 
